digraph Tree {
0 [label="X[2] <= 3.5000\ngini = 0.713139943544\nsamples = 551", shape="box"] ;
1 [label="X[9] <= 2.3500\ngini = 0.433301156666\nsamples = 243", shape="box"] ;
0 -> 1 ;
2 [label="X[0] <= 46.5000\ngini = 0.385107015458\nsamples = 232", shape="box"] ;
1 -> 2 ;
3 [label="gini = 0.0516\nsamples = 76\nvalue = [ 74.   1.   0.   1.   0.]", shape="box"] ;
2 -> 3 ;
4 [label="gini = 0.5070\nsamples = 156\nvalue = [ 105.   26.   10.   14.    1.]", shape="box"] ;
2 -> 4 ;
5 [label="X[11] <= 0.5000\ngini = 0.710743801653\nsamples = 11", shape="box"] ;
1 -> 5 ;
6 [label="gini = 0.5600\nsamples = 5\nvalue = [ 0.  1.  1.  0.  3.]", shape="box"] ;
5 -> 6 ;
7 [label="gini = 0.5000\nsamples = 6\nvalue = [ 0.  3.  0.  3.  0.]", shape="box"] ;
5 -> 7 ;
8 [label="X[9] <= 0.7500\ngini = 0.77645893068\nsamples = 308", shape="box"] ;
0 -> 8 ;
9 [label="X[3] <= 153.5000\ngini = 0.70465337132\nsamples = 117", shape="box"] ;
8 -> 9 ;
10 [label="gini = 0.7047\nsamples = 108\nvalue = [ 45.  31.  19.   9.   4.]", shape="box"] ;
9 -> 10 ;
11 [label="gini = 0.1975\nsamples = 9\nvalue = [ 0.  8.  1.  0.  0.]", shape="box"] ;
9 -> 11 ;
12 [label="X[3] <= 121.0000\ngini = 0.770757380554\nsamples = 191", shape="box"] ;
8 -> 12 ;
13 [label="gini = 0.7036\nsamples = 51\nvalue = [  7.  24.   9.   7.   4.]", shape="box"] ;
12 -> 13 ;
14 [label="gini = 0.7652\nsamples = 140\nvalue = [ 12.  29.  38.  43.  18.]", shape="box"] ;
12 -> 14 ;
}